~o
<STREAMINFO> 1 39
<VECSIZE> 39<NULLD><MFCC_D_A_0><DIAGC>
~h "down"
<BEGINHMM>
<NUMSTATES> 6
<STATE> 2
<MEAN> 39
 2.180650e+00 1.910998e+00 6.087445e+00 1.185512e+01 -3.863582e+00 -8.738025e+00 3.599560e+00 -1.361337e+01 -4.744258e+00 5.606797e-01 3.654464e+00 -1.032778e+01 6.116428e+01 7.752147e-01 4.869506e-01 -2.575817e-02 -3.547829e-01 -5.248038e-01 -5.491223e-01 -3.192578e-01 -3.744794e-01 -2.337660e-01 -1.647170e-01 -1.050056e-01 -1.042229e-01 1.054099e+00 -2.381700e-01 -1.011969e-01 -1.559874e-01 -3.944679e-01 1.866688e-02 9.116106e-02 -3.069060e-02 3.931605e-01 2.243066e-01 -1.965331e-01 -1.163563e-01 2.071460e-01 -2.008518e-04
<VARIANCE> 39
 1.648275e+01 1.349334e+01 4.604189e+00 1.236340e+01 2.240669e+01 1.834490e+01 1.107653e+01 2.735024e+01 9.459359e+00 6.797766e+00 7.453809e+00 1.034097e+01 1.280437e+01 2.789939e+00 9.559205e-01 9.048612e-01 3.150248e+00 1.938745e+00 1.450116e+00 1.216491e+00 5.208321e+00 1.529413e+00 1.616260e+00 8.869363e-01 1.590926e+00 1.669650e+00 2.423449e-01 2.122392e-01 1.418750e-01 2.646681e-01 3.557499e-01 2.704017e-01 2.960612e-01 4.369965e-01 2.852154e-01 3.081268e-01 1.252420e-01 2.144544e-01 2.956046e-01
<GCONST> 9.268066e+01
<STATE> 3
<MEAN> 39
 2.350142e+00 6.452387e-01 4.737344e+00 -3.048620e+00 -1.069053e+01 -8.217792e+00 5.636086e+00 -3.109578e+00 2.330084e+00 -9.033524e+00 5.331734e-01 -2.401138e+00 7.124064e+01 2.681042e-01 -1.421370e+00 6.549825e-01 -1.578409e+00 -2.052423e+00 7.828565e-01 1.504194e+00 4.174676e-01 1.201056e+00 -1.126411e+00 1.485632e-01 1.038057e+00 1.118363e+00 1.201783e-01 -1.762908e-01 3.605218e-01 4.436136e-01 -2.676428e-01 4.649083e-02 3.207827e-01 -7.271905e-01 -2.693027e-01 3.318981e-01 2.788008e-01 -3.111019e-01 -2.653088e-01
<VARIANCE> 39
 9.002675e+00 2.122206e+01 1.417758e+01 1.045925e+01 4.673853e+01 1.404110e+01 3.213100e+01 1.760225e+01 1.463336e+01 1.307707e+01 1.023737e+01 1.250727e+01 4.961096e+00 1.050201e+00 1.763431e+00 1.752612e+00 1.940248e+00 2.069949e+00 9.112005e-01 2.483501e+00 4.529380e+00 3.260527e+00 2.549781e+00 1.154103e+00 1.989373e+00 7.911837e-01 2.815106e-01 4.028259e-01 3.051621e-01 2.358600e-01 5.920870e-01 1.856107e-01 6.205987e-01 5.707744e-01 4.929723e-01 3.077936e-01 1.504283e-01 2.468567e-01 7.537969e-02
<GCONST> 9.825285e+01
<STATE> 4
<MEAN> 39
 2.093679e+00 -9.303144e+00 8.896063e+00 -6.319426e+00 -2.255436e+01 -3.787434e+00 1.159137e+01 -6.257351e+00 6.050937e+00 -1.090841e+01 1.027520e+00 -1.930852e+00 7.632032e+01 -6.865308e-02 -4.388457e-01 -1.336394e-01 8.408455e-02 -4.483428e-02 2.119541e-02 -9.272795e-02 2.877699e-01 3.753065e-02 -2.760037e-01 -2.276241e-01 -1.589767e-01 4.385286e-02 -3.594135e-02 1.057274e-01 -1.061213e-01 6.640964e-02 2.079870e-01 -1.914806e-02 -1.331584e-01 9.128854e-02 -4.306520e-02 7.989785e-03 -7.140161e-02 -4.982149e-02 -7.418991e-02
<VARIANCE> 39
 3.930861e+00 1.755860e+01 8.005787e+00 7.541937e+00 1.790498e+01 1.480063e+01 1.809409e+01 2.320557e+01 1.581156e+01 1.405923e+01 1.087816e+01 5.880119e+00 3.944586e+00 2.421201e-01 4.507158e-01 6.412975e-01 5.216883e-01 1.626418e+00 9.059214e-01 1.598199e+00 1.445518e+00 9.272818e-01 7.647489e-01 6.826344e-01 4.260748e-01 3.013083e-01 5.115459e-02 9.605862e-02 1.052338e-01 9.703198e-02 1.357818e-01 1.463791e-01 2.943401e-01 2.531902e-01 1.673700e-01 1.604912e-01 1.208273e-01 7.010420e-02 2.073112e-02
<GCONST> 6.902391e+01
<STATE> 5
<MEAN> 39
 -2.691216e+00 -1.007702e+01 1.314392e+00 8.163377e-01 -4.895833e+00 -2.256189e-01 5.148449e+00 -6.572910e-01 4.273426e+00 -1.052928e+01 -5.260712e+00 -5.160485e+00 6.466660e+01 -1.006809e+00 1.784626e-01 -6.907684e-01 5.038253e-01 1.808324e+00 5.991421e-01 -8.045000e-01 -1.854625e-01 5.410483e-02 1.187210e+00 7.564600e-03 2.778727e-01 -2.051319e+00 4.444327e-03 -1.405194e-02 3.462831e-02 -1.143741e-01 -1.708224e-01 -7.355236e-02 5.050514e-02 -1.534467e-01 -1.399983e-02 1.159411e-01 2.137430e-01 1.853481e-01 -2.059916e-02
<VARIANCE> 39
 1.795159e+01 2.079865e+01 1.589469e+01 2.243502e+01 6.473414e+01 2.625045e+01 2.673697e+01 3.605140e+01 2.280248e+01 3.391891e+01 2.057947e+01 1.408494e+01 5.567920e+01 6.650615e-01 2.329738e+00 1.594138e+00 3.282108e+00 3.360822e+00 2.219034e+00 2.827806e+00 2.883430e+00 3.012417e+00 1.989652e+00 2.064797e+00 1.654029e+00 2.088256e+00 1.334952e-01 4.268123e-01 3.421249e-01 5.347106e-01 5.053219e-01 4.805768e-01 5.579584e-01 4.321301e-01 5.395326e-01 3.998960e-01 2.988584e-01 2.578339e-01 4.636812e-01
<GCONST> 1.118140e+02
<TRANSP> 6
 0.000000e+00 1.000000e+00 0.000000e+00 0.000000e+00 0.000000e+00 0.000000e+00
 0.000000e+00 9.270065e-01 7.299348e-02 0.000000e+00 0.000000e+00 0.000000e+00
 0.000000e+00 0.000000e+00 8.350354e-01 1.649645e-01 0.000000e+00 0.000000e+00
 0.000000e+00 0.000000e+00 0.000000e+00 9.481450e-01 5.185498e-02 0.000000e+00
 0.000000e+00 0.000000e+00 0.000000e+00 0.000000e+00 8.953254e-01 1.046746e-01
 0.000000e+00 0.000000e+00 0.000000e+00 0.000000e+00 0.000000e+00 0.000000e+00
<ENDHMM>
~o
<STREAMINFO> 1 39
<VECSIZE> 39<NULLD><MFCC_D_A_0><DIAGC>
~h "left"
<BEGINHMM>
<NUMSTATES> 6
<STATE> 2
<MEAN> 39
 3.645067e+00 -4.147808e+00 4.360481e+00 -6.735104e-01 -7.468506e+00 -5.053521e+00 4.881544e-01 -4.404851e+00 7.862122e+00 -6.769170e+00 -7.618216e-01 -5.460788e+00 6.929355e+01 3.973074e-01 2.504967e-01 3.841194e-02 -1.940628e-01 -5.318273e-01 -3.972062e-01 1.412220e-01 -2.401635e-01 -6.506462e-03 -5.685113e-02 -1.173445e-01 -3.617220e-01 5.202832e-01 -1.618642e-01 5.221914e-02 3.045116e-02 8.861195e-02 1.086549e-01 -4.245463e-03 9.892026e-02 -5.915586e-02 -1.608946e-01 1.586965e-01 8.726353e-02 -4.378327e-02 -2.046553e-01
<VARIANCE> 39
 1.061334e+01 2.239901e+01 1.366956e+01 3.710651e+01 7.250182e+01 4.925120e+01 5.117947e+01 3.264408e+01 5.736340e+01 1.866871e+01 1.395977e+01 1.600041e+01 5.461229e+01 1.995875e+00 2.272011e+00 1.473152e+00 2.492477e+00 4.130961e+00 2.982631e+00 3.410092e+00 3.565255e+00 5.544778e+00 2.394897e+00 1.682576e+00 1.129119e+00 3.266964e+00 2.677616e-01 3.568988e-01 2.704048e-01 3.777995e-01 5.761765e-01 5.685551e-01 5.469410e-01 6.041771e-01 8.420522e-01 4.092983e-01 2.984560e-01 2.403121e-01 2.740028e-01
<GCONST> 1.157504e+02
<STATE> 3
<MEAN> 39
 8.415142e-01 6.745037e+00 6.838460e+00 6.246716e+00 -4.092216e+00 -9.215149e+00 3.312484e+00 -1.400518e+01 -6.523761e+00 -4.971687e-02 2.666489e+00 -1.129060e+01 6.386786e+01 -8.044007e-01 2.643160e-01 2.027359e-01 2.911356e-01 9.310336e-01 3.532428e-01 -2.843314e-02 4.521444e-02 -4.582102e-01 2.127161e-01 2.854161e-01 2.688905e-01 -3.313792e-01 -2.476334e-01 -1.564669e-01 -2.581170e-01 -2.864583e-01 -7.050074e-03 2.135918e-01 1.156761e-02 4.152234e-01 4.513405e-01 -2.263025e-01 -1.358717e-01 1.957026e-01 2.423971e-01
<VARIANCE> 39
 1.796551e+01 9.211139e+00 7.756322e+00 1.375909e+01 2.253743e+01 1.577083e+01 2.059382e+01 2.149564e+01 1.224203e+01 1.387557e+01 1.286912e+01 1.393426e+01 6.981444e+00 2.748711e+00 1.130492e+00 1.230095e+00 2.278416e+00 2.123058e+00 2.177271e+00 2.464951e+00 4.533354e+00 4.585760e+00 1.965483e+00 1.645541e+00 2.319293e+00 1.233210e+00 7.241090e-01 2.451788e-01 2.664057e-01 3.074616e-01 4.488071e-01 3.383891e-01 5.354951e-01 4.428901e-01 5.697560e-01 3.586605e-01 3.135051e-01 3.531512e-01 2.932222e-01
<GCONST> 1.029765e+02
<STATE> 4
<MEAN> 39
 -1.911930e+01 1.690869e+00 -1.559124e+00 -6.909610e-02 2.901793e+00 -8.958372e-01 2.483526e+00 -2.803995e+00 3.437498e+00 -2.365594e+00 3.884810e+00 -2.194152e+00 6.314223e+01 1.666768e-01 -4.322773e-01 -1.893123e-01 -4.429443e-01 2.672469e-03 1.007221e-01 -2.927696e-01 -2.734752e-03 4.925929e-01 1.048130e-01 1.818942e-01 -1.218242e-01 1.856040e-01 3.328398e-01 -3.262923e-02 6.428204e-02 -4.193503e-02 -1.659628e-01 -1.473606e-01 -1.062708e-01 -2.139470e-01 -1.595882e-02 4.367589e-02 -1.372478e-02 -1.839428e-01 8.108094e-02
<VARIANCE> 39
 4.028215e+01 1.520549e+01 1.633300e+01 2.233518e+01 2.058920e+01 1.618531e+01 1.692806e+01 2.275562e+01 2.073761e+01 2.613099e+01 1.545668e+01 1.351339e+01 5.186008e+01 6.659713e+00 1.234012e+00 1.887369e+00 3.363368e+00 2.480070e+00 2.418094e+00 2.368438e+00 3.062986e+00 2.188277e+00 3.021218e+00 1.766903e+00 2.093736e+00 6.713877e+00 4.049383e-01 2.757167e-01 2.009034e-01 6.586810e-01 5.943117e-01 5.261165e-01 4.890930e-01 4.258935e-01 4.217701e-01 5.617552e-01 3.743522e-01 2.955511e-01 1.142845e+00
<GCONST> 1.137165e+02
<STATE> 5
<MEAN> 39
 1.320218e+00 -8.751860e+00 -2.465608e+00 -5.743014e+00 -3.186126e+00 -3.468192e+00 -2.071666e+00 -5.054821e+00 7.260487e+00 -2.579579e+00 -8.078740e-01 -1.019494e+01 6.939101e+01 -2.774849e-01 -1.617755e-01 -2.511898e-01 2.938197e-01 -2.658477e-02 3.732343e-04 3.187114e-01 4.962554e-01 -1.240435e-01 4.524260e-02 -2.199853e-01 2.371119e-01 -7.219528e-01 -2.173416e-01 5.772598e-02 5.581195e-02 1.241792e-01 1.211222e-01 3.662416e-02 7.977524e-02 1.372972e-01 -6.732475e-02 2.661468e-02 3.485961e-02 1.409819e-01 -1.693858e-01
<VARIANCE> 39
 2.641364e+01 1.392581e+01 1.805099e+01 2.954219e+01 3.383551e+01 3.177229e+01 2.455523e+01 4.326315e+01 2.337197e+01 3.628512e+01 2.648509e+01 2.748344e+01 8.411021e+01 2.865220e+00 1.818132e+00 1.481676e+00 1.964333e+00 3.213199e+00 2.993612e+00 1.710772e+00 3.559082e+00 2.238278e+00 3.400671e+00 2.193067e+00 3.401716e+00 4.271052e+00 4.013790e-01 2.680956e-01 2.776176e-01 2.687009e-01 3.149037e-01 4.536160e-01 3.111423e-01 7.978192e-01 3.621451e-01 5.532842e-01 3.431302e-01 6.233706e-01 3.379425e-01
<GCONST> 1.154585e+02
<TRANSP> 6
 0.000000e+00 1.000000e+00 0.000000e+00 0.000000e+00 0.000000e+00 0.000000e+00
 0.000000e+00 9.567236e-01 4.327644e-02 0.000000e+00 0.000000e+00 0.000000e+00
 0.000000e+00 0.000000e+00 9.214132e-01 7.858675e-02 0.000000e+00 0.000000e+00
 0.000000e+00 0.000000e+00 0.000000e+00 9.566535e-01 4.334652e-02 0.000000e+00
 0.000000e+00 0.000000e+00 0.000000e+00 0.000000e+00 9.551528e-01 4.484728e-02
 0.000000e+00 0.000000e+00 0.000000e+00 0.000000e+00 0.000000e+00 0.000000e+00
<ENDHMM>
~o
<STREAMINFO> 1 39
<VECSIZE> 39<NULLD><MFCC_D_A_0><DIAGC>
~h "right"
<BEGINHMM>
<NUMSTATES> 6
<STATE> 2
<MEAN> 39
 -7.012544e-01 -1.210830e+01 4.378306e+00 2.947115e-01 -4.592152e+00 -7.961142e+00 4.067747e+00 -9.522256e-01 8.668093e+00 -6.697164e+00 -5.792218e-01 -3.210147e+00 7.032817e+01 5.839399e-01 2.022227e-01 1.206294e-01 4.410919e-02 -9.970943e-01 -7.898264e-01 -1.661938e-01 -4.894931e-01 7.586923e-01 -4.632955e-01 6.590190e-01 -8.308112e-02 7.781252e-01 -2.238589e-02 6.890971e-02 1.243635e-01 5.622707e-02 -1.103167e-01 4.386213e-02 6.957061e-03 -7.695964e-02 -5.470966e-02 -2.820925e-02 5.405577e-02 1.095658e-01 -8.862459e-02
<VARIANCE> 39
 2.884057e+01 1.319087e+01 1.514332e+01 1.260032e+01 5.169045e+01 3.535476e+01 2.013447e+01 1.878608e+01 3.777951e+01 1.619721e+01 3.162964e+01 1.442056e+01 2.494514e+01 1.478593e+00 1.446971e+00 1.476818e+00 1.675504e+00 3.482551e+00 1.566991e+00 1.757898e+00 1.133100e+00 1.709878e+00 1.218881e+00 1.552854e+00 1.509621e+00 6.924863e-01 2.597573e-01 2.590826e-01 1.845036e-01 3.203996e-01 5.771037e-01 3.351358e-01 3.223956e-01 2.119544e-01 2.908312e-01 2.130197e-01 3.209676e-01 2.025239e-01 1.249282e-01
<GCONST> 9.989557e+01
<STATE> 3
<MEAN> 39
 1.930471e+00 -5.366238e+00 1.796541e+01 3.766849e-02 -1.923507e+01 -8.340645e+00 3.547807e-01 -1.417659e+01 8.617179e+00 -1.373851e+01 1.713717e+00 5.696523e+00 7.240152e+01 -6.961595e-02 4.205990e-03 2.341623e-01 -6.870249e-02 -4.068447e-02 1.891809e-01 -1.016270e-01 -4.209271e-01 -1.412287e-02 2.289165e-01 -5.163207e-01 3.100649e-01 -1.066086e-01 1.179968e-02 -2.913040e-02 -1.316328e-01 6.486670e-03 1.048443e-01 2.760575e-02 -7.035480e-02 6.039131e-02 5.463978e-02 1.603151e-01 -9.054578e-02 -1.250475e-01 1.106344e-02
<VARIANCE> 39
 7.312160e+00 2.528191e+01 2.051887e+01 1.074742e+01 1.224602e+01 2.848343e+01 1.510718e+01 1.679251e+01 2.196810e+01 1.149379e+01 1.396797e+01 8.828803e+00 9.074764e+00 7.410152e-01 1.728271e+00 2.002324e+00 1.075183e+00 1.363326e+00 2.158320e+00 1.549244e+00 1.416656e+00 2.136173e+00 1.550038e+00 8.668359e-01 5.937943e-01 4.785301e-01 1.464064e-01 2.335996e-01 2.386854e-01 2.073567e-01 2.444579e-01 3.401237e-01 2.874808e-01 2.138491e-01 2.906723e-01 2.793935e-01 1.403070e-01 8.042890e-02 5.955302e-02
<GCONST> 8.743723e+01
<STATE> 4
<MEAN> 39
 4.276795e+00 -1.210670e+01 6.265642e+00 -3.856840e+00 -1.230671e+01 -8.002558e+00 -6.930572e-01 -1.176156e+01 1.057645e+01 -1.674807e-01 -8.683749e+00 -3.699386e+00 7.341171e+01 9.951377e-02 5.317140e-02 -8.013451e-01 -1.099132e-01 5.717085e-01 3.567586e-01 1.861724e-01 2.135968e-01 -4.151601e-01 -1.344365e-01 -1.163989e-01 -7.557786e-01 -2.279634e-01 -4.180213e-02 1.028312e-01 2.850096e-02 7.989585e-02 9.526534e-02 4.167152e-02 1.021701e-01 -1.554423e-02 -7.800872e-02 -1.283308e-01 5.040848e-02 5.354738e-02 -9.238727e-02
<VARIANCE> 39
 6.511585e+00 1.903187e+01 3.449648e+01 1.930822e+01 1.952836e+01 1.377148e+01 1.583600e+01 1.368035e+01 1.501692e+01 4.231790e+01 6.510140e+00 2.138496e+01 1.237443e+01 6.063873e-01 1.850002e+00 7.321837e-01 1.559529e+00 1.973035e+00 1.234603e+00 1.919972e+00 1.081471e+00 1.455154e+00 3.849508e+00 7.600957e-01 1.545929e+00 1.314566e+00 1.297734e-01 2.811932e-01 1.585214e-01 1.889499e-01 3.723987e-01 2.472318e-01 3.573464e-01 1.934737e-01 2.986441e-01 3.514320e-01 1.397500e-01 2.651773e-01 1.939141e-01
<GCONST> 9.283797e+01
<STATE> 5
<MEAN> 39
 -1.308232e+00 -6.701527e+00 -3.460652e+00 1.487643e+00 1.967911e+00 1.738569e+00 3.815426e+00 -8.474859e+00 3.217656e+00 -6.046411e+00 -6.705505e+00 -5.832844e+00 6.059566e+01 -1.400130e+00 -8.539049e-02 -2.417003e-01 1.609646e-01 8.701751e-01 4.461936e-01 -7.766237e-03 6.966954e-01 -4.706806e-01 1.294775e+00 8.473098e-01 1.387000e+00 -1.780780e+00 1.783804e-02 -2.143125e-01 8.526944e-02 -2.528242e-01 -3.838263e-01 -2.658700e-01 -8.343563e-02 1.296762e-01 8.475178e-02 1.053357e-01 1.919392e-01 9.421769e-02 1.266890e-01
<VARIANCE> 39
 1.929204e+01 1.648919e+01 7.397366e+00 1.713130e+01 2.279383e+01 1.651170e+01 1.695098e+01 2.310199e+01 1.079319e+01 2.985093e+01 2.008389e+01 3.081044e+01 2.291272e+01 9.711939e-01 3.643925e+00 6.921434e-01 3.890711e+00 5.052821e+00 2.695447e+00 2.329353e+00 2.225126e+00 1.459356e+00 1.843514e+00 1.775384e+00 2.046444e+00 8.031464e-01 2.363408e-01 7.142103e-01 1.546069e-01 7.335949e-01 6.783876e-01 4.324131e-01 5.042530e-01 5.566328e-01 3.374072e-01 4.411252e-01 3.018429e-01 5.732800e-01 1.250503e-01
<GCONST> 1.058981e+02
<TRANSP> 6
 0.000000e+00 1.000000e+00 0.000000e+00 0.000000e+00 0.000000e+00 0.000000e+00
 0.000000e+00 9.398601e-01 6.013991e-02 0.000000e+00 0.000000e+00 0.000000e+00
 0.000000e+00 0.000000e+00 9.526864e-01 4.731357e-02 0.000000e+00 0.000000e+00
 0.000000e+00 0.000000e+00 0.000000e+00 9.533491e-01 4.665095e-02 0.000000e+00
 0.000000e+00 0.000000e+00 0.000000e+00 0.000000e+00 8.734332e-01 1.265668e-01
 0.000000e+00 0.000000e+00 0.000000e+00 0.000000e+00 0.000000e+00 0.000000e+00
<ENDHMM>
~o
<STREAMINFO> 1 39
<VECSIZE> 39<NULLD><MFCC_D_A_0><DIAGC>
~h "sil"
<BEGINHMM>
<NUMSTATES> 6
<STATE> 2
<MEAN> 39
 -1.339495e+01 -5.975511e+00 2.348699e+00 -1.140446e+00 3.839442e+00 -3.458598e-01 2.130350e+00 1.489441e+00 3.294553e+00 2.225056e-01 2.795066e+00 9.181284e-01 5.242009e+01 3.827507e-02 5.281775e-02 4.024795e-02 1.262495e-01 -1.772916e-02 6.068001e-02 4.777522e-02 5.022140e-03 -2.231588e-02 1.108535e-02 -8.603758e-03 -7.864110e-03 -7.718835e-02 1.559007e-02 9.486557e-06 -3.108499e-02 3.385802e-02 8.009268e-03 -1.380105e-03 3.371114e-02 6.383818e-03 -1.292534e-03 -1.535029e-02 1.613936e-02 -1.128262e-02 -9.405269e-03
<VARIANCE> 39
 1.425698e+01 1.816013e+01 2.571074e+01 1.940749e+01 1.755253e+01 1.749494e+01 2.698196e+01 2.562656e+01 2.157908e+01 2.452027e+01 2.149639e+01 1.572585e+01 2.159578e+01 1.055152e+00 9.209060e-01 1.596081e+00 1.802118e+00 1.555136e+00 1.776075e+00 2.074210e+00 2.306551e+00 2.142411e+00 2.184285e+00 1.983861e+00 1.587529e+00 1.323170e+00 2.039522e-01 1.692584e-01 2.831804e-01 3.432092e-01 3.046154e-01 3.515146e-01 4.228655e-01 4.729134e-01 4.232534e-01 4.194945e-01 4.167647e-01 3.103707e-01 2.376987e-01
<GCONST> 1.027072e+02
<STATE> 3
<MEAN> 39
 -1.044248e+01 -6.927448e+00 2.200460e-01 3.273114e+00 2.832221e+00 -1.042768e+00 2.598169e+00 -1.996523e+00 6.944847e-01 3.323147e-01 2.138625e+00 -1.496704e+00 5.115435e+01 -9.277409e-02 1.328764e-01 -1.214758e-02 8.684888e-02 5.524063e-02 2.321077e-02 8.232743e-02 6.467423e-02 5.145944e-02 6.609081e-02 1.114369e-01 2.458641e-02 -1.530323e-01 -6.747901e-03 -1.256724e-02 -1.162180e-02 -2.410024e-02 2.669468e-03 2.100299e-02 8.166762e-03 1.690771e-02 2.903328e-02 -8.285228e-03 -7.278498e-03 1.531033e-02 7.790366e-03
<VARIANCE> 39
 2.306406e+00 1.027329e+01 7.796740e+00 1.206856e+01 1.110028e+01 1.222288e+01 1.392638e+01 2.334661e+01 2.157606e+01 2.029258e+01 1.618751e+01 1.464996e+01 3.587008e+00 1.550742e-01 3.328093e-01 5.418792e-01 8.065609e-01 9.901265e-01 1.065882e+00 1.147686e+00 1.619562e+00 1.375457e+00 1.464797e+00 1.460476e+00 1.187184e+00 1.214158e-01 2.916725e-02 6.092773e-02 9.977935e-02 1.564090e-01 2.035518e-01 2.189579e-01 2.305143e-01 3.309411e-01 2.742059e-01 2.764614e-01 2.811407e-01 2.424157e-01 1.706902e-02
<GCONST> 7.342062e+01
<STATE> 4
<MEAN> 39
 -1.292469e+01 -4.467636e+00 -9.743297e-01 2.698945e+00 4.276759e+00 8.394864e-01 4.546760e+00 1.592176e+00 4.238163e+00 8.400728e-01 3.898973e+00 5.989889e-01 4.780261e+01 -4.103107e-02 8.562510e-04 -2.528184e-02 -1.558667e-02 -5.986293e-03 1.772499e-02 2.267212e-02 3.052943e-02 1.815713e-02 -2.291312e-02 -1.106729e-02 -2.057872e-02 -2.132069e-02 5.083944e-03 4.466199e-03 1.145390e-02 -4.963931e-03 -9.965478e-03 2.177966e-03 -1.449486e-02 -1.541533e-02 -7.098301e-03 3.631476e-03 -3.140773e-03 -6.019080e-03 2.219190e-02
<VARIANCE> 39
 1.407398e+00 8.877866e+00 5.806577e+00 8.720009e+00 7.409685e+00 1.012348e+01 1.079526e+01 1.576344e+01 1.630411e+01 1.267303e+01 1.196959e+01 1.306835e+01 1.326932e+00 1.181662e-01 2.369113e-01 4.201979e-01 5.487384e-01 7.518330e-01 9.025164e-01 1.060245e+00 1.328930e+00 1.345240e+00 1.255377e+00 1.221255e+00 1.300087e+00 5.344976e-02 2.419315e-02 4.663914e-02 8.545730e-02 1.140705e-01 1.514557e-01 1.794415e-01 2.096368e-01 2.743792e-01 2.751917e-01 2.545425e-01 2.559088e-01 2.650364e-01 1.098570e-02
<GCONST> 6.347812e+01
<STATE> 5
<MEAN> 39
 -1.251810e+01 -4.300157e+00 -5.190581e-01 2.277543e+00 4.256662e+00 1.656383e+00 3.864782e+00 1.953739e-01 3.877287e+00 1.303351e+00 3.247531e+00 1.550614e-01 4.955559e+01 2.008211e-01 1.134095e-01 3.106517e-01 8.293791e-02 -1.876939e-01 -3.558939e-02 -1.215603e-01 -1.193367e-01 -1.820919e-01 -1.914542e-01 -2.033145e-01 -1.777619e-01 4.271161e-01 1.712211e-01 3.967759e-02 6.771966e-02 -6.116933e-02 -1.526233e-01 -5.584552e-02 -3.854292e-02 -6.324278e-02 -4.461133e-02 -1.435280e-01 -2.549251e-02 -3.981190e-02 1.827127e-01
<VARIANCE> 39
 7.531084e+00 1.122853e+01 1.535646e+01 1.282529e+01 1.506288e+01 1.674091e+01 1.909691e+01 3.279506e+01 2.132364e+01 1.725008e+01 1.815954e+01 1.712084e+01 6.512836e+00 1.168409e+00 1.119916e+00 1.562463e+00 1.784598e+00 2.132959e+00 1.648848e+00 2.191132e+00 2.589161e+00 2.237460e+00 1.787078e+00 1.679703e+00 1.657583e+00 1.114063e+00 2.376393e-01 1.926236e-01 2.906154e-01 3.959582e-01 4.478551e-01 3.143564e-01 4.765360e-01 4.883569e-01 4.750933e-01 3.531127e-01 3.160330e-01 3.622189e-01 2.426121e-01
<GCONST> 9.966048e+01
<TRANSP> 6
 0.000000e+00 6.092302e-01 3.907698e-01 0.000000e+00 0.000000e+00 0.000000e+00
 0.000000e+00 9.421591e-01 3.334719e-02 2.449376e-02 0.000000e+00 0.000000e+00
 0.000000e+00 0.000000e+00 9.495803e-01 4.402641e-02 6.393252e-03 0.000000e+00
 0.000000e+00 0.000000e+00 0.000000e+00 9.572338e-01 2.678894e-02 1.597725e-02
 0.000000e+00 0.000000e+00 0.000000e+00 0.000000e+00 8.597646e-01 1.402354e-01
 0.000000e+00 0.000000e+00 0.000000e+00 0.000000e+00 0.000000e+00 0.000000e+00
<ENDHMM>
~o
<STREAMINFO> 1 39
<VECSIZE> 39<NULLD><MFCC_D_A_0><DIAGC>
~h "up"
<BEGINHMM>
<NUMSTATES> 6
<STATE> 2
<MEAN> 39
 1.764234e-01 3.332651e+00 1.361787e+00 -1.364953e+01 -1.477765e+01 1.772111e+00 5.611239e+00 -6.032391e+00 4.239745e+00 -8.138391e+00 1.068290e+00 -8.010944e+00 6.749812e+01 5.295753e-02 9.976088e-02 1.044466e-01 -2.221638e-02 2.623548e-02 -2.520686e-01 1.067972e-01 2.225639e-01 3.778455e-01 7.827520e-02 -1.292954e-01 5.164642e-03 -6.072958e-04 -3.321584e-01 -1.557755e-01 -1.045545e-01 3.828628e-01 3.819064e-01 4.707444e-03 -2.975457e-02 2.806234e-01 1.025349e-01 3.280550e-01 1.192029e-01 3.309715e-01 -5.189887e-01
<VARIANCE> 39
 2.971190e+01 1.962948e+01 6.666261e+00 4.981328e+01 1.345493e+02 2.927690e+01 2.258554e+01 5.542447e+01 2.058353e+01 4.423226e+01 2.686896e+01 3.069789e+01 6.916799e+01 6.115002e+00 3.415927e+00 1.061031e+00 9.093577e+00 2.271561e+01 2.332263e+00 1.826186e+00 8.253443e+00 2.172808e+00 6.912968e+00 3.447843e+00 5.351657e+00 1.505800e+01 7.027540e-01 5.382230e-01 1.908913e-01 8.693129e-01 2.867699e+00 4.053282e-01 3.535299e-01 1.006628e+00 4.011120e-01 7.084582e-01 6.221964e-01 5.486311e-01 1.037593e+00
<GCONST> 1.314059e+02
<STATE> 3
<MEAN> 39
 -9.912478e+00 -2.409404e+00 -9.347058e-01 -1.853974e-01 1.046559e+00 5.859002e-01 6.079670e+00 4.951889e+00 8.210788e+00 3.089338e+00 5.493355e+00 2.197068e+00 4.952292e+01 -3.403792e-01 -2.964621e-01 -1.002996e-01 4.871964e-01 4.509934e-01 1.219642e-01 -6.463361e-02 3.376070e-02 -1.085506e-01 2.570426e-01 2.773940e-01 2.492316e-01 -3.382980e-01 9.737419e-02 5.775414e-03 1.395738e-01 -1.076971e-01 5.450946e-02 -5.694852e-02 1.307768e-02 -1.111395e-01 -1.206782e-01 -1.546158e-01 -1.493852e-01 -1.883350e-01 3.045121e-01
<VARIANCE> 39
 4.392701e+00 7.454452e+00 5.737115e+00 9.976453e+00 1.391198e+01 1.447855e+01 1.451192e+01 1.347304e+01 1.403509e+01 1.389199e+01 1.443503e+01 1.100274e+01 2.802711e+00 1.879843e-01 3.173527e-01 4.257252e-01 6.680125e-01 7.399127e-01 1.347630e+00 1.574014e+00 1.555422e+00 1.480238e+00 1.447760e+00 1.944982e+00 1.671095e+00 3.313598e-01 7.740611e-02 8.837252e-02 1.031308e-01 1.315386e-01 1.896253e-01 2.544874e-01 3.492783e-01 3.168533e-01 2.844221e-01 3.359936e-01 3.802583e-01 3.144074e-01 1.950023e-01
<GCONST> 7.819366e+01
<STATE> 4
<MEAN> 39
 -7.820424e+00 -6.222313e+00 2.678800e+00 -2.356434e+00 7.577534e+00 4.631582e-01 6.567359e+00 1.072556e+00 3.648115e+00 2.561372e+00 5.660224e+00 -7.421334e-01 5.985331e+01 9.918504e-01 -8.988136e-01 4.130431e-01 -1.420702e+00 5.117700e-01 1.554903e-02 5.410306e-02 -8.226942e-01 -1.200634e+00 -6.093285e-01 -2.723819e-01 -4.754476e-01 2.343774e+00 -5.886637e-02 -1.096287e-01 -2.509463e-01 2.865192e-02 -3.225257e-01 5.310493e-02 -1.313699e-01 -4.144494e-02 -3.905872e-02 -8.640061e-03 -1.048110e-01 2.879785e-01 -4.010919e-01
<VARIANCE> 39
 9.481273e+00 1.199523e+01 1.010834e+01 1.871723e+01 1.722491e+01 9.413074e+00 1.544446e+01 1.878689e+01 2.141790e+01 2.261351e+01 1.189431e+01 1.876229e+01 5.876994e+01 7.531667e-01 1.079064e+00 1.994998e+00 8.555596e-01 3.221271e+00 1.366881e+00 1.685335e+00 2.270253e+00 1.753630e+00 2.104945e+00 1.611583e+00 2.827709e+00 5.787477e+00 2.129632e-01 1.752941e-01 2.837205e-01 3.651363e-01 6.321187e-01 2.633234e-01 3.143626e-01 4.353965e-01 3.865085e-01 4.226139e-01 3.535590e-01 5.054109e-01 1.414694e+00
<GCONST> 1.032828e+02
<STATE> 5
<MEAN> 39
 -7.768256e+00 -8.572299e+00 -4.166863e-01 -1.608286e+00 3.773604e+00 3.393323e+00 4.549445e+00 -2.457191e+00 1.563579e+00 2.523586e+00 2.093233e+00 2.565040e+00 5.654752e+01 -3.036250e-01 1.921392e-01 -2.061219e-01 4.516258e-01 -1.828628e-01 1.134436e-01 -1.528820e-01 -3.141546e-02 2.218149e-01 1.612808e-01 -1.200194e-01 9.845060e-02 -7.429189e-01 -3.891624e-02 6.895893e-02 5.544234e-02 3.456999e-02 1.343962e-01 2.009278e-02 5.154302e-02 5.661744e-02 7.283866e-02 2.251133e-02 8.339088e-02 -9.393828e-02 2.526132e-02
<VARIANCE> 39
 8.912309e+00 1.667722e+01 1.117842e+01 1.620823e+01 1.841198e+01 2.512325e+01 1.643203e+01 2.374751e+01 2.412883e+01 2.469365e+01 2.215505e+01 1.631235e+01 2.532510e+01 4.354746e-01 6.220733e-01 6.805949e-01 1.052699e+00 1.341020e+00 2.210546e+00 1.900940e+00 2.164160e+00 1.829164e+00 1.851695e+00 2.418581e+00 1.866119e+00 3.973802e-01 9.343404e-02 1.289693e-01 1.104273e-01 2.198238e-01 2.245671e-01 4.096145e-01 3.565449e-01 4.326423e-01 4.200456e-01 3.420349e-01 3.990045e-01 3.206453e-01 5.933679e-02
<GCONST> 9.294595e+01
<TRANSP> 6
 0.000000e+00 1.000000e+00 0.000000e+00 0.000000e+00 0.000000e+00 0.000000e+00
 0.000000e+00 9.255595e-01 7.444052e-02 0.000000e+00 0.000000e+00 0.000000e+00
 0.000000e+00 0.000000e+00 9.298839e-01 7.011609e-02 0.000000e+00 0.000000e+00
 0.000000e+00 0.000000e+00 0.000000e+00 8.474694e-01 1.525306e-01 0.000000e+00
 0.000000e+00 0.000000e+00 0.000000e+00 0.000000e+00 9.348448e-01 6.515525e-02
 0.000000e+00 0.000000e+00 0.000000e+00 0.000000e+00 0.000000e+00 0.000000e+00
<ENDHMM>
